0,0,0.0067054
-2.6,0,0.00041715
-2.34,0,0.000707061
-2.08,0,0.0011337
-1.82,0,0.00171957
-1.56,0,0.00246727
-1.3,0,0.00334882
-1.04,0,0.00429975
-0.78,0,0.00522243
-0.52,0,0.00600039
-0.26,0,0.00652173
0,0,0.0067054
0.26,0,0.00652173
0.52,0,0.00600039
0.78,0,0.00522243
1.04,0,0.00429975
1.3,0,0.00334882
1.56,0,0.00246727
1.82,0,0.00171957
2.08,0,0.0011337
2.34,0,0.000707062
1.83848,-1.83848,0.00041715
-1.83848,-1.83848,0.00041715
-1.68857,-1.97706,0.00041715
-1.52824,-2.10344,0.00041715
-1.3585,-2.21686,0.00041715
-1.18038,-2.31662,0.00041715
-0.994977,-2.40209,0.00041715
-0.803444,-2.47275,0.00041715
-0.606958,-2.52816,0.00041715
-0.406729,-2.56799,0.00041715
-0.203994,-2.59199,0.00041715
0,-2.6,0.00041715
0.203994,-2.59199,0.00041715
0.40673,-2.56799,0.00041715
0.606958,-2.52816,0.00041715
0.803444,-2.47275,0.00041715
0.994977,-2.40209,0.00041715
1.18038,-2.31662,0.00041715
1.3585,-2.21686,0.00041715
1.52824,-2.10344,0.00041715
1.68856,-1.97706,0.00041715
1.97706,-1.68857,0.00041715
-1.97706,-1.68857,0.00041715
-1.65463,-1.65463,0.000707061
-1.50412,-1.79254,0.000707062
-1.34217,-1.91682,0.000707061
-1.17,-2.0265,0.000707061
-0.988927,-2.12076,0.000707061
-0.800327,-2.19888,0.000707062
-0.605637,-2.26027,0.000707061
-0.406337,-2.30445,0.000707061
-0.203944,-2.3311,0.000707061
0,-2.34,0.000707061
0.203944,-2.3311,0.000707061
0.406337,-2.30445,0.000707061
0.605637,-2.26027,0.000707061
0.800327,-2.19888,0.000707061
0.988927,-2.12076,0.000707062
1.17,-2.0265,0.000707061
1.34217,-1.91682,0.000707061
1.50412,-1.79254,0.000707061
1.65463,-1.65463,0.000707062
2.10344,-1.52824,0.00041715
-2.10344,-1.52824,0.00041715
-1.79254,-1.50412,0.000707062
-1.47078,-1.47078,0.0011337
-1.31954,-1.60786,0.0011337
-1.15559,-1.72946,0.0011337
-0.980505,-1.8344,0.0011337
-0.795982,-1.92167,0.0011337
-0.603792,-1.99044,0.0011337
-0.405788,-2.04003,0.0011337
-0.203876,-2.06998,0.0011337
0,-2.08,0.0011337
0.203876,-2.06998,0.0011337
0.405788,-2.04003,0.0011337
0.603792,-1.99044,0.0011337
0.795981,-1.92167,0.0011337
0.980505,-1.8344,0.0011337
1.15559,-1.72946,0.0011337
1.31954,-1.60786,0.0011337
1.47078,-1.47078,0.0011337
1.79254,-1.50412,0.000707061
2.21686,-1.3585,0.00041715
-2.21686,-1.3585,0.00041715
-1.91682,-1.34217,0.000707061
-1.60786,-1.31954,0.0011337
-1.28693,-1.28693,0.00171957
-1.13475,-1.42293,0.00171957
-0.968298,-1.54104,0.00171957
-0.789668,-1.63976,0.00171957
-0.601108,-1.71787,0.00171957
-0.404988,-1.77437,0.00171957
-0.203775,-1.80856,0.00171957
0,-1.82,0.00171957
0.203775,-1.80856,0.00171957
0.404988,-1.77437,0.00171957
0.601108,-1.71787,0.00171957
0.789669,-1.63976,0.00171957
0.968298,-1.54104,0.00171957
1.13475,-1.42293,0.00171957
1.28693,-1.28693,0.00171957
1.60786,-1.31954,0.0011337
1.91682,-1.34217,0.000707061
2.31662,-1.18038,0.00041715
-2.31662,-1.18038,0.00041715
-2.0265,-1.17,0.000707061
-1.72946,-1.15559,0.0011337
-1.42293,-1.13475,0.00171957
-1.10309,-1.10309,0.00246727
-0.949668,-1.23763,0.00246727
-0.78,-1.351,0.00246727
-0.596986,-1.44125,0.00246727
-0.403758,-1.50684,0.00246727
-0.203621,-1.54665,0.00246727
0,-1.56,0.00246727
0.203621,-1.54665,0.00246727
0.403758,-1.50684,0.00246727
0.596986,-1.44125,0.00246727
0.78,-1.351,0.00246727
0.949668,-1.23763,0.00246727
1.10309,-1.10309,0.00246727
1.42293,-1.13475,0.00171957
1.72946,-1.15559,0.0011337
2.0265,-1.17,0.000707061
2.40209,-0.994977,0.00041715
-2.40209,-0.994977,0.00041715
-2.12076,-0.988927,0.000707061
-1.8344,-0.980505,0.0011337
-1.54104,-0.968298,0.00171957
-1.23763,-0.949668,0.00246727
-0.919239,-0.919239,0.00334882
-0.764121,-1.05172,0.00334882
-0.590188,-1.15831,0.00334882
-0.401722,-1.23637,0.00334882
-0.203365,-1.28399,0.00334882
0,-1.3,0.00334882
0.203365,-1.28399,0.00334882
0.401722,-1.23637,0.00334882
0.590188,-1.15831,0.00334882
0.764121,-1.05172,0.00334882
0.919239,-0.919239,0.00334882
1.23763,-0.949668,0.00246727
1.54104,-0.968298,0.00171957
1.8344,-0.980505,0.0011337
2.12076,-0.988927,0.000707061
2.47275,-0.803444,0.00041715
-2.47275,-0.803444,0.00041715
-2.19888,-0.800327,0.000707062
-1.92167,-0.795982,0.0011337
-1.63976,-0.789668,0.00171957
-1.351,-0.78,0.00246727
-1.05172,-0.764121,0.00334882
-0.735391,-0.735391,0.00429975
-0.577793,-0.864728,0.00429975
-0.397991,-0.960835,0.00429975
-0.202894,-1.02002,0.00429975
0,-1.04,0.00429975
0.202894,-1.02002,0.00429975
0.397991,-0.960835,0.00429975
0.577793,-0.864728,0.00429975
0.735391,-0.735391,0.00429975
1.05172,-0.764121,0.00334882
1.351,-0.78,0.00246727
1.63976,-0.789668,0.00171957
1.92167,-0.795982,0.0011337
2.19888,-0.800327,0.000707061
2.52816,-0.606958,0.00041715
-2.52816,-0.606958,0.00041715
-2.26027,-0.605637,0.000707061
-1.99044,-0.603792,0.0011337
-1.71787,-0.601108,0.00171957
-1.44125,-0.596986,0.00246727
-1.15831,-0.590188,0.00334882
-0.864728,-0.577793,0.00429975
-0.551543,-0.551543,0.00522243
-0.39,-0.6755,0.00522243
-0.201879,-0.753422,0.00522243
0,-0.78,0.00522243
0.201879,-0.753422,0.00522243
0.39,-0.6755,0.00522243
0.551543,-0.551543,0.00522243
0.864728,-0.577793,0.00429975
1.15831,-0.590188,0.00334882
1.44125,-0.596986,0.00246727
1.71787,-0.601108,0.00171957
1.99044,-0.603792,0.0011337
2.26027,-0.605637,0.000707061
2.56799,-0.406729,0.00041715
-2.56799,-0.406729,0.00041715
-2.30445,-0.406337,0.000707061
-2.04003,-0.405788,0.0011337
-1.77437,-0.404988,0.00171957
-1.50684,-0.403758,0.00246727
-1.23637,-0.401722,0.00334882
-0.960835,-0.397991,0.00429975
-0.6755,-0.39,0.00522243
-0.367696,-0.367696,0.00600038
-0.198996,-0.480417,0.00600039
0,-0.52,0.00600039
0.198996,-0.480417,0.00600039
0.367696,-0.367696,0.00600038
0.6755,-0.39,0.00522243
0.960835,-0.397991,0.00429975
1.23637,-0.401722,0.00334882
1.50684,-0.403758,0.00246727
1.77437,-0.404988,0.00171957
2.04003,-0.405788,0.0011337
2.30445,-0.406337,0.000707062
2.59199,-0.203994,0.00041715
-2.59199,-0.203994,0.00041715
-2.3311,-0.203944,0.000707061
-2.06998,-0.203876,0.0011337
-1.80856,-0.203775,0.00171957
-1.54665,-0.203621,0.00246727
-1.28399,-0.203365,0.00334882
-1.02002,-0.202894,0.00429975
-0.753422,-0.201879,0.00522243
-0.480417,-0.198996,0.00600039
-0.183848,-0.183848,0.00652173
0,-0.26,0.00652173
0.183848,-0.183848,0.00652173
0.480417,-0.198996,0.00600039
0.753422,-0.201879,0.00522243
1.02002,-0.202894,0.00429975
1.28399,-0.203365,0.00334882
1.54665,-0.203621,0.00246727
1.80856,-0.203775,0.00171957
2.06998,-0.203876,0.0011337
2.3311,-0.203944,0.000707061
2.6,0,0.00041715
-2.6,0,0.00041715
-2.34,0,0.000707061
-2.08,0,0.0011337
-1.82,0,0.00171957
-1.56,0,0.00246727
-1.3,0,0.00334882
-1.04,0,0.00429975
-0.78,0,0.00522243
-0.52,0,0.00600039
-0.26,0,0.00652173
0,0,0.0067054
0.26,0,0.00652173
0.52,0,0.00600039
0.78,0,0.00522243
1.04,0,0.00429975
1.3,0,0.00334882
1.56,0,0.00246727
1.82,0,0.00171957
2.08,0,0.0011337
2.34,0,0.000707062
2.59199,0.203994,0.00041715
-2.59199,0.203994,0.00041715
-2.3311,0.203944,0.000707061
-2.06998,0.203876,0.0011337
-1.80856,0.203775,0.00171957
-1.54665,0.203621,0.00246727
-1.28399,0.203365,0.00334882
-1.02002,0.202894,0.00429975
-0.753422,0.201879,0.00522243
-0.480417,0.198996,0.00600039
-0.183848,0.183848,0.00652173
0,0.26,0.00652173
0.183848,0.183848,0.00652173
0.480417,0.198996,0.00600039
0.753422,0.201879,0.00522243
1.02002,0.202894,0.00429975
1.28399,0.203365,0.00334882
1.54665,0.203621,0.00246727
1.80856,0.203775,0.00171957
2.06998,0.203876,0.0011337
2.3311,0.203944,0.000707061
2.56799,0.40673,0.00041715
-2.56799,0.40673,0.00041715
-2.30445,0.406337,0.000707061
-2.04003,0.405788,0.0011337
-1.77437,0.404988,0.00171957
-1.50684,0.403758,0.00246727
-1.23637,0.401722,0.00334882
-0.960835,0.397991,0.00429975
-0.6755,0.39,0.00522243
-0.367696,0.367696,0.00600038
-0.198996,0.480417,0.00600039
0,0.52,0.00600039
0.198996,0.480417,0.00600039
0.367696,0.367696,0.00600038
0.6755,0.39,0.00522243
0.960835,0.397991,0.00429975
1.23637,0.401722,0.00334882
1.50684,0.403758,0.00246727
1.77437,0.404988,0.00171957
2.04003,0.405788,0.0011337
2.30445,0.406337,0.000707062
2.52816,0.606958,0.00041715
-2.52816,0.606958,0.00041715
-2.26027,0.605637,0.000707061
-1.99044,0.603792,0.0011337
-1.71787,0.601108,0.00171957
-1.44125,0.596986,0.00246727
-1.15831,0.590188,0.00334882
-0.864728,0.577793,0.00429975
-0.551543,0.551543,0.00522243
-0.39,0.6755,0.00522243
-0.201879,0.753422,0.00522243
0,0.78,0.00522243
0.201879,0.753422,0.00522243
0.39,0.6755,0.00522243
0.551543,0.551543,0.00522243
0.864728,0.577793,0.00429975
1.15831,0.590188,0.00334882
1.44125,0.596986,0.00246727
1.71787,0.601108,0.00171957
1.99044,0.603792,0.0011337
2.26027,0.605637,0.000707061
2.47275,0.803444,0.00041715
-2.47275,0.803444,0.00041715
-2.19888,0.800327,0.000707061
-1.92167,0.795981,0.0011337
-1.63976,0.789669,0.00171957
-1.351,0.78,0.00246727
-1.05172,0.764121,0.00334882
-0.735391,0.735391,0.00429975
-0.577793,0.864728,0.00429975
-0.397991,0.960835,0.00429975
-0.202894,1.02002,0.00429975
0,1.04,0.00429975
0.202894,1.02002,0.00429975
0.397991,0.960835,0.00429975
0.577793,0.864728,0.00429975
0.735391,0.735391,0.00429975
1.05172,0.764121,0.00334882
1.351,0.78,0.00246727
1.63976,0.789669,0.00171957
1.92167,0.795981,0.0011337
2.19888,0.800327,0.000707061
2.40209,0.994977,0.00041715
-2.40209,0.994977,0.00041715
-2.12076,0.988927,0.000707062
-1.8344,0.980505,0.0011337
-1.54104,0.968298,0.00171957
-1.23763,0.949668,0.00246727
-0.919239,0.919239,0.00334882
-0.764121,1.05172,0.00334882
-0.590188,1.15831,0.00334882
-0.401722,1.23637,0.00334882
-0.203365,1.28399,0.00334882
0,1.3,0.00334882
0.203365,1.28399,0.00334882
0.401722,1.23637,0.00334882
0.590188,1.15831,0.00334882
0.764121,1.05172,0.00334882
0.919239,0.919239,0.00334882
1.23763,0.949668,0.00246727
1.54104,0.968298,0.00171957
1.8344,0.980505,0.0011337
2.12076,0.988927,0.000707061
2.31662,1.18038,0.00041715
-2.31662,1.18038,0.00041715
-2.0265,1.17,0.000707061
-1.72946,1.15559,0.0011337
-1.42293,1.13475,0.00171957
-1.10309,1.10309,0.00246727
-0.949668,1.23763,0.00246727
-0.78,1.351,0.00246727
-0.596986,1.44125,0.00246727
-0.403758,1.50684,0.00246727
-0.203621,1.54665,0.00246727
0,1.56,0.00246727
0.203621,1.54665,0.00246727
0.403758,1.50684,0.00246727
0.596986,1.44125,0.00246727
0.78,1.351,0.00246727
0.949668,1.23763,0.00246727
1.10309,1.10309,0.00246727
1.42293,1.13475,0.00171957
1.72946,1.15559,0.0011337
2.0265,1.17,0.000707061
2.21686,1.3585,0.00041715
-2.21686,1.3585,0.00041715
-1.91682,1.34217,0.000707061
-1.60786,1.31954,0.0011337
-1.28693,1.28693,0.00171957
-1.13475,1.42293,0.00171957
-0.968298,1.54104,0.00171957
-0.789668,1.63976,0.00171957
-0.601108,1.71787,0.00171957
-0.404988,1.77437,0.00171957
-0.203775,1.80856,0.00171957
0,1.82,0.00171957
0.203775,1.80856,0.00171957
0.404988,1.77437,0.00171957
0.601108,1.71787,0.00171957
0.789669,1.63976,0.00171957
0.968298,1.54104,0.00171957
1.13475,1.42293,0.00171957
1.28693,1.28693,0.00171957
1.60786,1.31954,0.0011337
1.91682,1.34217,0.000707061
2.10344,1.52824,0.00041715
-2.10344,1.52824,0.00041715
-1.79254,1.50412,0.000707061
-1.47078,1.47078,0.0011337
-1.31954,1.60786,0.0011337
-1.15559,1.72946,0.0011337
-0.980505,1.8344,0.0011337
-0.795982,1.92167,0.0011337
-0.603792,1.99044,0.0011337
-0.405788,2.04003,0.0011337
-0.203876,2.06998,0.0011337
0,2.08,0.0011337
0.203876,2.06998,0.0011337
0.405788,2.04003,0.0011337
0.603792,1.99044,0.0011337
0.795981,1.92167,0.0011337
0.980505,1.8344,0.0011337
1.15559,1.72946,0.0011337
1.31954,1.60786,0.0011337
1.47078,1.47078,0.0011337
1.79254,1.50412,0.000707061
1.97706,1.68856,0.00041715
-1.97706,1.68856,0.00041715
-1.65463,1.65463,0.000707062
-1.50412,1.79254,0.000707061
-1.34217,1.91682,0.000707061
-1.17,2.0265,0.000707061
-0.988927,2.12076,0.000707061
-0.800327,2.19888,0.000707061
-0.605637,2.26027,0.000707061
-0.406337,2.30445,0.000707062
-0.203944,2.3311,0.000707061
0,2.34,0.000707062
0.203944,2.3311,0.000707061
0.406337,2.30445,0.000707062
0.605637,2.26027,0.000707061
0.800327,2.19888,0.000707061
0.988927,2.12076,0.000707061
1.17,2.0265,0.000707061
1.34217,1.91682,0.000707061
1.50412,1.79254,0.000707061
1.65463,1.65463,0.000707062
1.83848,1.83848,0.00041715
-1.83848,1.83848,0.00041715
-1.68857,1.97706,0.00041715
-1.52824,2.10344,0.00041715
-1.3585,2.21686,0.00041715
-1.18038,2.31662,0.00041715
-0.994977,2.40209,0.00041715
-0.803444,2.47275,0.00041715
-0.606958,2.52816,0.00041715
-0.406729,2.56799,0.00041715
-0.203994,2.59199,0.00041715
0,2.6,0.00041715
0.203994,2.59199,0.00041715
0.40673,2.56799,0.00041715
0.606958,2.52816,0.00041715
0.803444,2.47275,0.00041715
0.994977,2.40209,0.00041715
1.18038,2.31662,0.00041715
1.3585,2.21686,0.00041715
1.52824,2.10344,0.00041715
1.68856,1.97706,0.00041715
